1.3160328011298497,-0.35631827493252965,0.05836762450060841,1.319327219863542,-0.3814625933073856,0.5192038448072555,0.017935488956288183,0.9362594188321117,0.4674583841154137,0.018964429601918385,-0.7819676654736496,0.15022645654669378,0.07748505929769862,-0.04089234624829686,0.3416234871226781,1.2176865842856757
-0.5706662037091708,0.48250498988457713,-0.2504269232015531,-1.0033577573207486,-0.3189219201755973,-0.22514915124531637,-0.945004776580953,-0.5566441743611301,-0.06367728147507218,-0.45800501818566813,0.8052161326740798,0.3451730858828341,-0.3791705065763865,0.4802411837463252,0.8812276626014094,0.6855756173873325
0.7027744885365942,0.8620781964472918,0.19747526664110956,-0.23034862936682446,-0.8277466658582766,0.5146593949210256,-0.21791218964497538,0.15900605222114264,-0.7511156867118388,0.6935981642466945,0.364279741494524,-1.0361313702136026,-0.17612642460236344,-0.9720926995415984,-0.6769007317643336,-0.6218674753339463
0.27736418729179857,-0.7610977585822037,-0.9451827549670161,-0.09990505385246982,-0.07865292424123477,-0.15574067916087903,-0.016228478150813304,0.7237433873115474,-0.34804021882947217,0.9899911008545267,0.8319895833886628,0.6572640429739239,-0.04087581793063664,-0.851817946568077,-0.6019889204277479,-0.7332486573079576
1.4753645981046128,-0.4369312911651773,0.5015435942021221,-2.379892771632303,0.4492958747308778,0.8825103442856794,-0.2329205052076901,0.8862447808461552,0.5218743186500763,0.587484422013829,0.18525376786697453,-0.3638227275978823,0.35552546029995385,0.8156238325351283,-0.32278453544550934,0.7706914839247379
0.4170686827189781,0.4311397340053939,1.4688653686478417,0.7027319034507507,-0.2609127375206504,-0.9837981321052515,-0.525442949985574,-0.7960626776073233,0.1719973222050002,-0.36875717277986947,0.02722766866269381,0.10969666042538191,-0.942316326599038,0.1095886212106966,-0.8159281304229568,-0.2740108419594311
-0.5913535531178717,0.588434689700874,1.0174867473176368,0.11608406325729763,-0.320350565526803,0.5994217054761637,1.0632260337082868,0.899811407278483,-0.17794014837041855,0.06102401982601423,-0.7691946737383192,-0.37310188970553393,-0.6075727119461103,-0.5647164470336291,0.37348371718129564,-0.6218088727672625
-0.8427964122799377,0.3418114142093303,0.3228859470372244,-0.44404952113107693,0.494623383175362,0.23362273320130011,0.08160814448159365,-0.7752705492146608,0.12342401103422526,0.0751049190914281,1.0041275337990367,-0.5445673309463732,0.5735243227136253,-0.39450606277471695,0.6099426515650008,0.5971793498659078
0.5866469291594325,-0.1967403765596512,-0.221032453517459,-1.283351437573757,0.4464362064122605,-0.28004584743375494,0.33224981492240535,-0.05218446002367997,-0.43499412361717094,-0.21489447742978438,-0.867671423646788,-0.78501515768371,0.5643921041931668,-0.6157710982412866,-0.6771779513402226,-0.5513709612509683
