0.8954089875141286,-0.19443565192664938,-3.046163441713257,2.5986197743637596,-0.11203417469751598,0.6207516687182251,-0.5992641866070544,0.04750555064342796,0.39566681016266636,1.0362200912882034,0.3277286917432198,0.506216517377269,0.1872608464045524,0.996034081650987,0.7082775898428657,0.47990986048094736
-0.4394534031883431,-0.0459094431190348,0.17309161681167537,0.4670284135332601,-1.1978048396983079,-0.6412549730053029,-0.14034542616903095,0.6391153237578854,0.3165827092672393,-0.8194105351723427,0.13567810533622396,-0.09551610962246497,-1.0482609494810367,0.0012065575859924657,0.9186583908439683,1.3668368979043544
-0.01875404201214582,-0.7943970913042273,0.06947422532254227,-0.10663567178005934,-0.20442858219587864,0.28978025592764156,-0.3302253546087898,-0.13298467686145307,0.3201174545882583,0.18296238964123504,0.6743583956009385,0.1289265972094732,0.01315481773389882,-0.27581215995622693,0.2983597857683628,-0.7227131970738796
-0.007319407151202607,-0.5476641598282457,2.6644303921051073,0.9831150130788374,-0.7571823247633017,-1.0481472105570677,-0.6822263885286298,0.06730999730085079,-0.9293433516915854,-0.7504767709493894,-0.5755790087243354,0.48121407377268477,0.23531015563119909,-0.5854204355932946,0.18630654500568125,-0.10150598291042927
-1.5855519827985884,-0.5082538974018819,0.11525035770990052,0.03404497897309838,0.19367916240199695,-0.4684804910006335,0.610200486793951,0.07035537811991327,0.3215597708862959,-0.045104656171792705,0.6262775037013009,-0.11697700540142768,0.059118493136036926,0.048840794343620014,0.394075365114149,-1.0045204338001283
0.49074006082866817,-0.9124264659881486,0.2395157910083738,0.1743719952362142,-1.5955092033308125,-0.09035962670014983,-0.7052488874626381,-0.7641899246505965,0.37271191715515783,-0.28529226435820937,-0.3380006504266046,0.13364012884523693,-0.9671103836558123,0.6084661873272037,0.22059600090829304,0.5775132325962711
-0.2901259057294754,-1.32198061307948,0.11913599584186993,0.2276965625825618,-0.29179810891395935,-0.8294603426687694,0.4276342522325617,-0.7395254514701765,-0.07896405343633166,0.7096393862818726,0.37996389358147914,-0.7983054928414658,0.49032884922204834,-0.1538561475371068,1.0250793054861351,0.25345668801255644
1.0183406543061262,0.03400013095002717,-0.42205029139632416,-2.4528971728132483,0.6742960922599824,0.4354366745564354,0.6201258655714371,0.8959164642221745,-0.18137400621117877,-0.04034478536029256,0.46325839329833,0.6886941767259356,-0.3761060123264139,0.283995693900752,0.07050855140388806,0.9646507476017196
0.421875565106488,0.23487613796220222,-0.5466746586133049,-0.0031613089869388655,0.5952142343186355,0.8588211845910704,-0.4397402236938213,-0.8265813533095268,0.4951553992555322,-0.1495217358632087,-0.7524613876153377,-0.32585404594711426,0.4443181555935514,-0.4932161313718917,-0.01581980406130779,0.23631469032891797