0.17815778383010192,-0.7401939949796749,-0.20114273193926294,0.4666056324994907,-0.6105811703713532,0.706665594819922,0.6431401129579983,-0.8558152198912503,0.5850535912032151,0.9281011011663995,-0.7443482902574295
-0.6841586150386103,0.09321773755700802,-0.23292430648024764,-0.06583421908297604,-1.2420550377618544,0.08415612667213525,-1.3166225867597618,0.6006766840717922,0.5399975400090754,0.648450054467093,0.4321640438351816
1.7719101046740102,2.187054037633509,-0.7332249609632334,-0.4750040219875729,0.2673516137672926,0.33814962055282094,0.0070914825004216924,0.3443365128552661,1.6253768389024363,0.5413265638806884,1.0922610050131685
0.5075955497079643,0.6589147240960198,-0.7186556328267563,0.029789441220351695,0.1899003710143845,-0.33119951437448136,-0.40089439769305096,-0.3494829633041426,0.8581489806503917,-0.5005942612295308,0.5533475655772655
-0.07088161550593057,-0.7913235481973014,0.5585126508003109,-0.7714399771889253,0.4356339065519265,-0.8523719637394412,0.5478760123520184,-0.5433239281222171,-0.314678792920328,0.7982521875126264,-0.12605164714334718
-0.4305950164671201,0.37757048397316345,-0.7574812729062472,-0.8286170515208404,0.3585087664083786,-0.33235197383203113,-0.7162085850030971,1.0095750324942931,0.3576742533285379,0.11229628874580884,-0.3778367751267736
0.8383036930647392,0.9300601671016197,-0.8883739042901678,-0.2484709194316258,-0.21846895253643603,-0.4475793326125406,0.274229085912449,-0.9004340545425239,-0.0044797029336044215,-0.4107364384520715,0.9918517550414814
